tree
version=v4
num_class=1
num_tree_per_iteration=1
label_index=0
max_feature_idx=49
objective=binary sigmoid:1
feature_names=user_order_count user_total_value user_last_order_at user_order_frequency user_monetary_value_avg user_recency_days user_segment user_preferred_cuisine_1 user_preferred_cuisine_2 user_preferred_cuisine_3 user_preferred_cuisine_4 user_preferred_cuisine_5 user_preferred_zone_1 user_preferred_zone_2 user_preferred_zone_3 rest_cuisine rest_price_tier rest_rating_avg rest_delivery_rating rest_is_chain rest_city rest_zone rest_total_item_orders cart_item_count cart_total_value cart_veg_ratio cart_has_main cart_has_beverage cart_has_dessert cart_main_without_beverage cart_category_main cart_category_beverage cart_category_dessert cart_category_side cart_category_addon context_hour context_day_of_week context_meal_breakfast context_meal_lunch context_meal_dinner context_meal_late_night context_city context_zone item_restaurant_id item_name item_category item_veg item_price item_price_log item_item_order_count
feature_infos=[2:15] [2528.6999999999998:31905.540000000001] [1761663013.1934631:1772403207.1934631] [2:15] [734.5:4374.5699999999997] [0:124] [0:2] [0:5] [0:6] [0:6] [0:6] [0:6] [0:2] [0:3] [0:3] [0:5] [0:2] [3.6000000000000001:4.7000000000000002] [3.6000000000000001:4.7999999999999998] [0:1] [0:1] [0:2] [168:358] none [83.459999999999994:799.99000000000001] [0:1] [0:1] [0:1] [0:1] [0:1] [0:1] [0:1] [0:1] [0:1] [0:1] [0:23] [0:6] [0:1] [0:1] [0:1] [0:1] [0:1] [0:2] [0:29] [0:749] [0:4] [0:1] [80.530000000000001:799.99000000000001] [4.4009999999999998:6.6858000000000004] [0:31]
tree_sizes=3317 3410 3453 3405 3408 3421 3415 3429 3436 3400 3440 3432

Tree=0
num_leaves=31
num_cat=0
split_feature=49 49 4 49 4 9 24 4 24 49 35 24 49 49 4 1 47 2 22 44 46 47 8 47 22 37 2 33 8 47
split_gain=248.123 43.2231 42.5867 23.114 22.415 14.8632 16.3511 18.1911 16.5193 14.6685 16.5138 12.0944 12.091 11.5263 10.9561 10.5192 9.91596 9.72261 14.7147 10.547 9.99573 12.038 10.8981 9.96172 9.31001 10.8495 8.93147 11.3591 8.87231 10.5701
threshold=11.500000000000002 6.5000000000000009 1877.7300000000002 15.500000000000002 1612.7600000000002 1.5000000000000002 163.19500000000002 1785.1700000000003 153.13000000000002 19.500000000000004 18.500000000000004 160.26500000000001 17.500000000000004 9.5000000000000018 4292.9050000000007 22384.675000000003 574.48500000000001 1771899672.1934633 234.00000000000003 234.50000000000003 1.0000000180025095e-35 96.705000000000013 3.5000000000000004 500.31000000000006 305.00000000000006 1.0000000180025095e-35 1771139796.1934633 1.0000000180025095e-35 3.5000000000000004 588.99000000000012
decision_type=2 2 2 2 2 2 2 2 2 2 2 2 2 2 2 2 2 2 2 2 2 2 2 2 2 2 2 2 2 2
left_child=1 -1 3 16 -3 -5 7 8 12 17 24 -10 -7 14 -6 -8 -2 20 19 -19 -4 22 -22 -21 25 -11 27 -26 -20 -30
right_child=2 4 9 5 13 6 15 -9 11 10 -12 -13 -14 -15 -16 -17 -18 18 28 23 21 -23 -24 -25 26 -27 -28 -29 29 -31
leaf_value=-2.1417508446635187 -2.1079380540133963 -2.1320984241723111 -2.1027195077588829 -2.1172019310982724 -2.1235536024800381 -2.0845304078314557 -2.0972202139477942 -2.1301233824975929 -1.9312374799178027 -2.067704009540039 -1.9832158962748043 -2.0799050883005261 -2.0243917777048379 -2.1099892117418633 -2.0121601730852854 -2.0069933455881994 -2.1317940580926038 -1.9410518356944615 -2.0535783974252571 -2.0865394511756477 -1.9218336194649646 -2.0850907228376574 -2.0836736777360407 -1.9577635992681854 -2.0317504259296313 -1.9563363610546236 -2.1348415335621165 -2.1652601099110127 -2.0982838445441465 -2.0521050631055346
leaf_weight=388.04964405298233 308.38318666815758 376.42160865664482 104.65231856703758 39.496880561113358 373.92302253842354 22.006777733564377 102.24983191490173 7.5918578207492819 4.7088738381862631 7.6879572868347186 7.1113604903221121 2.1141882538795471 13.934422582387922 320.49171939492226 2.1141882538795462 3.2673818469047538 50.548319160938263 3.1712823808193189 25.562457978725433 5.8620674312114716 2.1141882538795462 153.27864840626717 2.2102877199649811 2.0180887877941132 7.1113604903221148 3.1712823808193207 7.2074599564075461 1.921989321708679 57.371381253004074 15.952511370182036
leaf_count=4038 3209 3917 1089 411 3891 229 1064 79 49 80 74 22 145 3335 22 34 526 33 266 61 22 1595 23 21 74 33 75 20 597 166
internal_value=-2.11447 -2.12745 -2.09473 -2.10376 -2.12227 -2.08993 -2.08299 -2.0595 -2.04684 -2.08243 -2.05099 -1.97542 -2.06089 -2.11695 -2.12289 -2.09428 -2.11132 -2.08535 -2.07281 -2.018 -2.09065 -2.08268 -2.00086 -2.05138 -2.06938 -2.03358 -2.09397 -2.06095 -2.07907 -2.0881
internal_weight=2421.71 1461 960.706 554.302 1072.95 195.37 155.873 50.3561 42.7643 406.405 34.2114 6.82306 35.9412 696.529 376.037 105.517 358.932 372.193 109.938 11.0514 262.255 157.603 4.32448 7.88016 27.1 10.8592 16.2408 9.03335 98.8864 73.3239
internal_count=25200 15203 9997 5768 11165 2033 1622 524 445 4229 356 71 374 7248 3913 1098 3735 3873 1144 115 2729 1640 45 82 282 113 169 94 1029 763
is_linear=0
shrinkage=1


Tree=1
num_leaves=31
num_cat=0
split_feature=49 49 4 4 49 24 8 47 24 10 47 17 49 49 35 4 49 1 47 4 33 49 47 4 24 22 6 24 24 35
split_gain=222.668 40.5597 36.6111 20.6935 20.2371 16.028 12.3032 16.5626 11.7098 11.2309 10.728 10.5182 10.4567 10.2507 15.1452 9.86662 10.4607 9.50225 10.5791 9.30038 8.94892 11.8386 16.0508 13.7294 10.8285 10.6371 9.05119 8.71967 14.9689 10.593
threshold=11.500000000000002 6.5000000000000009 1892.1950000000002 1612.7600000000002 17.500000000000004 158.80000000000004 3.5000000000000004 104.89000000000001 85.340000000000018 3.5000000000000004 260.80500000000006 4.4500000000000011 9.5000000000000018 19.500000000000004 18.500000000000004 1536.8700000000001 14.500000000000002 22172.285000000007 654.92000000000019 4292.9050000000007 1.0000000180025095e-35 14.500000000000002 581.97000000000014 2354.4250000000006 319.66000000000003 292.50000000000006 1.5000000000000002 319.66000000000003 424.61000000000007 20.500000000000004
decision_type=2 2 2 2 2 2 2 2 2 2 2 2 2 2 2 2 2 2 2 2 2 2 2 2 2 2 2 2 2 2
left_child=1 -1 4 -3 8 6 7 -6 -2 -10 -11 -9 19 20 -15 -12 -17 18 27 -5 -4 26 23 24 -23 -25 -22 29 -29 -7
right_child=2 3 13 12 5 17 -8 11 9 10 15 -13 -14 14 -16 16 -18 -19 -20 -21 21 22 -24 25 -26 -27 -28 28 -30 -31
leaf_value=-0.026495114000673614 0.10952437926723434 -0.016987735047717067 0.023759617943015645 -0.0086935891178287848 0.19948878693897348 -0.0077085767841127391 0.029295639276222415 0.10193841306587077 -0.00043028638882848893 0.028145187550424784 -0.017287697621929259 -0.0010463227737036917 0.0042408709742736183 0.038685752905170644 0.12053693851190582 0.0011830646850996033 0.049841619120381486 0.082571127968727648 -0.034625067602751414 0.090128523888539189 0.015422461315161704 0.18541325997666899 0.0031533526888835777 0.10363251943490791 0.079838018965101828 0.0084395454493924535 0.086475387643338592 0.0765080045275809 0.0039358163307401791 0.078322013959901904
leaf_weight=379.80466783046722 2.6204810887575141 371.23979862779379 295.65498515218496 371.26438844203949 3.0250444710254696 28.001721687614921 13.922675922513006 6.8396402746438962 300.16404963284731 85.352873608469963 34.992607690393925 3.7061847895383835 321.61963041871786 27.269072540104389 7.2311974167823783 33.982471592724323 16.427588820457458 5.2967552393674842 9.7027961164712888 2.2885303050279608 33.412041835486889 4.8671886026859337 7.4880016669630995 5.2207159921526891 5.7855238392949104 6.8708150610327721 5.1574022173881522 14.605229273438455 14.066407471895216 3.9947261214256278
leaf_count=4038 27 3917 3011 3891 29 288 140 66 3105 879 363 37 3335 274 68 353 170 52 100 22 340 49 76 53 59 70 52 150 145 41
internal_value=-6.88404e-06 -0.0124611 0.0184482 -0.00745614 0.0103762 0.0304446 0.0631542 0.0970564 0.00598822 0.00537833 0.0156126 0.0656063 -0.00235712 0.0300985 0.0562849 0.00301059 0.0172061 0.0184261 0.0134167 -0.00805083 0.0275911 0.0439249 0.0674209 0.0882542 0.129816 0.0504637 0.0252518 0.0212267 0.041215 0.00308704
internal_weight=2421.88 1446.22 975.658 1066.41 576.701 103.161 27.4935 13.5709 473.54 470.92 170.756 10.5458 695.173 398.957 34.5003 85.4027 50.4101 75.6676 70.3709 373.553 364.457 68.8017 30.2322 22.7442 10.6527 12.0915 38.5694 60.6681 28.6716 31.9964
internal_count=25200 15203 9997 11165 5945 1048 272 132 4897 4870 1765 103 7248 4052 342 886 523 776 724 3913 3710 699 307 231 108 123 392 624 295 329
is_linear=0
shrinkage=0.05


Tree=2
num_leaves=31
num_cat=0
split_feature=4 47 1 1 13 4 45 35 7 44 45 5 22 16 14 40 44 47 22 44 17 36 4 7 40 4 11 4 47 34
split_gain=44.1732 16.6275 7.4418 8.84541 9.70695 7.40431 7.17441 9.65827 9.93822 9.63934 8.8275 9.60388 7.46365 8.33111 7.92972 7.92433 8.08155 7.36846 6.94643 6.79107 11.9173 8.34033 12.0708 9.14714 8.33393 7.15358 7.09458 7.07113 6.59038 7.44696
threshold=1877.7300000000002 617.10500000000013 10581.815000000001 11018.510000000002 1.5000000000000002 2838.9550000000004 1.5000000000000002 1.5000000000000002 4.5000000000000009 524.50000000000011 3.5000000000000004 60.500000000000007 309.50000000000006 1.5000000000000002 1.5000000000000002 1.0000000180025095e-35 21.500000000000004 304.13000000000005 234.00000000000003 24.500000000000004 3.9500000000000006 1.5000000000000002 1823.6100000000004 1.5000000000000002 1.0000000180025095e-35 833.31000000000006 2.5000000000000004 1568.4200000000003 289.22000000000008 1.0000000180025095e-35
decision_type=2 2 2 2 2 2 2 2 2 2 2 2 2 2 2 2 2 2 2 2 2 2 2 2 2 2 2 2 2 2
left_child=1 19 -3 4 -4 6 7 8 9 -2 11 28 -9 15 -15 -14 -17 -11 -7 -1 -21 23 25 24 27 -23 -25 -22 -8 -30
right_child=5 2 3 -5 -6 18 10 12 -10 17 -12 -13 13 14 -16 16 -18 -19 -20 20 21 22 -24 26 -26 -27 -28 -29 29 -31
leaf_value=0.011551072260601173 0.024677925926717116 -0.03866436081811099 0.097316998956354081 -0.018239301198339091 -0.011244120749252271 -0.0074674501399624605 0.0023739383092424254 -0.0077801038287876158 -0.019849523016790896 0.15907765748077196 -0.00077541693634155151 0.043929309266896553 -0.0083273471143228486 -0.0032840084601693307 0.08528359216849353 0.11486417345694425 0.016771856128790431 0.036986190248757961 0.022203751128871331 -0.012662626164500016 0.0071553724238361156 -0.020807875243824495 -0.018316424638727093 -0.0074122987861069359 0.021707583020908958 0.0054133347723714122 -0.030196962070327911 -0.030016886322073656 0.020309609330450829 -0.00099588508115397846
leaf_weight=67.118965588510036 17.878866232931617 44.100667543709278 3.4934018775820714 103.6510503590107 4.617040641605854 22.80343010276556 137.49809520691633 209.25976077467203 8.4766945987939852 2.6918004527688018 156.26841851323843 23.883888520300388 37.689326755702496 3.8729441687464696 6.610207661986351 2.5348753407597533 11.557273849844931 2.5938437581062317 133.84467010945082 339.61867055296898 27.63723948597908 27.253708511590958 67.766544997692108 77.307292439043522 35.302520282566547 507.21759122610092 62.348496630787849 23.425567410886288 202.60299793630838 50.853071860969067
leaf_count=691 187 469 37 1094 49 240 1416 2172 88 28 1604 245 383 39 66 26 118 27 1368 3571 291 288 705 810 370 5317 654 246 2079 522
internal_value=-1.46452e-05 -0.00583025 -0.021221 -0.0142648 0.0355231 0.00782639 0.00602275 -0.000177894 0.0259028 0.0428734 0.0093225 0.0131377 -0.00324395 0.0119091 0.0523685 0.00353656 0.0354539 0.101891 0.0178506 -0.00388225 -0.00477441 -0.00153276 0.00153408 -0.0097236 0.00301634 0.00406327 -0.0176345 -0.00982538 0.011233 0.0160165
internal_weight=2421.78 1390.86 155.862 111.761 8.11044 1030.92 874.272 303.166 31.6412 23.1645 571.106 414.838 271.524 62.2646 10.4832 51.7815 14.0921 5.28564 156.648 1235 1167.88 828.259 602.238 226.021 86.3653 534.471 139.656 51.0628 390.954 253.456
internal_count=25200 14592 1649 1180 86 10608 9000 3134 330 242 5866 4262 2804 632 105 527 144 55 1608 12943 12252 8681 6310 2371 907 5605 1464 537 4017 2601
is_linear=0
shrinkage=0.05


Tree=3
num_leaves=31
num_cat=0
split_feature=49 49 4 4 49 2 49 14 36 22 34 47 2 1 2 18 4 4 47 17 8 24 18 49 4 17 17 47 45 18
split_gain=198.618 37.7748 29.2591 18.4146 16.5398 11.8403 13.5916 22.3898 11.5464 10.6383 11.4264 12.1625 11.5496 15.2352 10.827 12.4378 9.8962 10.6987 9.86734 9.49922 9.44382 13.9151 10.0502 9.39404 9.22783 10.2853 9.20964 8.52615 8.51335 8.45779
threshold=11.500000000000002 6.5000000000000009 2158.5550000000007 1612.7600000000002 15.500000000000002 1771450588.1934633 22.500000000000004 2.5000000000000004 1.5000000000000002 285.00000000000006 1.0000000180025095e-35 568.10000000000014 1772073718.6934633 12007.505000000003 1772239696.6934633 4.1500000000000012 1942.6200000000001 1683.3850000000002 476.40500000000003 3.9500000000000006 3.5000000000000004 164.55000000000004 4.3500000000000005 9.5000000000000018 1724.1500000000003 3.9500000000000006 3.7500000000000004 334.93000000000006 1.5000000000000002 4.5500000000000007
decision_type=2 2 2 2 2 2 2 2 2 2 2 2 2 2 2 2 2 2 2 2 2 2 2 2 2 2 2 2 2 2
left_child=1 -1 4 27 9 6 26 -8 28 10 12 14 16 18 15 -12 17 -2 -14 -15 21 22 -6 -5 25 -22 -4 -3 -7 -10
right_child=2 3 5 23 20 8 7 -9 29 -11 11 -13 13 19 -16 -17 -18 -19 -20 -21 24 -23 -24 -25 -26 -27 -28 -29 -30 -31
leaf_value=-0.025660176069523245 0.0086251527768685405 -0.010437650455657274 0.055518097325763432 -0.0077572761162228061 0.022623445260502445 -0.028834859254409428 0.16925584242384378 -0.016427049520738122 0.042965751243663086 -0.001127135584648083 0.098298373863070387 -0.016231016060109519 0.10933431758550127 0.065068266064677568 -0.035989467677059565 0.029625033763668308 0.038229620576249006 -0.022763076717422049 0.0045201511279732041 -0.0094881188473010733 -0.024133623545326381 0.020110986598395341 0.075857972397218879 0.00389102774843079 0.027575793543136315 0.015477618895167114 0.017647338741293383 -0.0264221479212607 0.035260295450506844 0.080872324818990718
leaf_weight=371.31536200642586 71.022485889494419 233.69527608156204 17.7386180087924 371.56363191455603 14.446541495621203 7.5411524325609234 3.8800664022564879 2.6371960490942001 47.662502065300941 246.54504939168692 13.176190689206129 7.698591634631156 8.3593030795454961 5.6643252596259144 2.911206252872943 13.892246834933756 16.277450062334538 43.723006717860699 3.2069733813405028 16.167694747447968 26.838464975357056 82.40103080868721 24.759916797280312 323.27180032432079 54.04631282389164 41.741070844233036 180.08092615753412 131.39827859401703 15.705126225948332 22.435698583722115
leaf_count=4038 737 2502 172 3913 143 75 36 25 469 2544 135 80 85 56 30 142 161 452 33 164 278 835 234 3335 535 424 1782 1415 154 216
internal_value=-1.89609e-05 -0.011933 0.0171898 -0.00711734 0.0115427 0.0303088 0.0234976 0.0942513 0.0451244 0.0058255 0.0143282 0.0391654 0.00858591 0.0347948 0.0535637 0.0634762 0.00184559 -0.00330099 0.080989 0.00983607 0.0220179 0.0319133 0.0564771 -0.00233093 0.0121458 0 0.0210948 -0.0162099 0.014219 0.0552673
internal_weight=2421.8 1431.24 990.559 1059.93 692.878 297.681 204.337 6.51726 93.3445 448.645 202.099 37.6782 164.421 33.3983 29.9796 27.0684 131.023 114.745 11.5663 21.832 244.233 121.607 39.2065 694.835 122.626 68.5795 197.82 365.094 23.2463 70.0982
internal_count=25200 15203 9997 11165 7068 2929 2015 61 914 4619 2075 387 1688 338 307 277 1350 1189 118 220 2449 1212 377 7248 1237 702 1954 3917 229 685
is_linear=0
shrinkage=0.05


Tree=4
num_leaves=31
num_cat=0
split_feature=49 49 49 2 2 24 38 49 6 3 22 35 48 48 35 21 35 49 35 3 49 44 35 44 14 14 43 43 35 22
split_gain=178.736 30.2138 27.1155 11.8357 13.6404 14.3031 10.5769 9.8209 10.4763 9.78983 9.356 15.6622 8.52117 8.45913 8.21192 8.21454 15.2138 7.98334 7.96235 7.92145 11.3343 7.73607 10.618 7.28852 6.74097 8.17804 7.1674 10.0638 6.83656 6.50212
threshold=10.500000000000002 15.500000000000002 5.5000000000000009 1772045152.1934633 1772325746.6934633 147.28500000000003 1.0000000180025095e-35 19.500000000000004 1.0000000180025095e-35 6.5000000000000009 308.00000000000006 5.5000000000000009 5.0471000000000013 5.2766000000000011 5.5000000000000009 1.5000000000000002 18.500000000000004 9.5000000000000018 8.5000000000000018 5.5000000000000009 20.500000000000004 452.50000000000006 2.5000000000000004 216.50000000000003 2.5000000000000004 1.5000000000000002 16.500000000000004 20.500000000000004 12.500000000000002 285.00000000000006
decision_type=2 2 2 2 2 2 2 2 2 2 2 2 2 2 2 2 2 2 2 2 2 2 2 2 2 2 2 2 2 2
left_child=2 3 -1 23 5 13 7 8 14 -6 -10 12 -12 21 -3 -16 -17 -4 -11 20 -9 22 -5 -2 25 26 -8 -28 -27 -25
right_child=1 6 17 4 9 -7 24 19 10 18 11 -13 -14 -15 15 16 -18 -19 -20 -21 -22 -23 -24 29 -26 28 27 -29 -30 -31
leaf_value=-0.02948481571787679 -0.0015962375524609662 0.0085878727689515637 -0.013036017469434197 0.019583259170573512 0.038528042390868662 0.021172846452013842 -0.027434437586885515 0.17261226291369491 0.025770063817729401 0.0099254970861229613 0.066281725126558319 -0.021756793610792434 -6.520839286237809e-05 -0.027633195605967283 0.033747060615256751 0.10967660004136684 0.022072474315306557 -0.0024499252357477169 -0.033143832902497179 0.038331786022277207 0.052509115226794405 0.030401163274822368 0.12797673306677557 0.013545464564398899 -0.016180375365865318 0.020362369673078098 0.12418591300517752 0.0099952018367907708 0.10532280395285643 0.0014384915739709312
leaf_weight=230.36992672085762 247.47505830228329 18.320675291121006 696.09502349048853 3.2001364454627099 11.985497772693632 104.96322435885668 10.580787733197214 2.7314620241522771 84.323439635336399 20.372916497290134 10.06933104246855 33.360019013285637 8.947298124432562 2.0075493380427352 40.88483028113842 11.91857221722603 8.8181861415505391 241.05285810679197 22.193488113582134 65.063683971762657 7.6518178582191467 6.2577576711773863 9.1088301762938482 294.54031499475241 21.237748622894287 5.7661110460758191 2.1128368750214603 16.454412676393986 4.2316051349043846 179.45130727440119
leaf_count=2557 2537 179 7497 32 116 1047 104 25 826 212 97 331 88 20 401 114 87 2527 231 622 70 64 88 3007 209 57 20 163 42 1830
internal_value=-2.74038e-05 0.0130771 -0.0141072 0.00821461 0.0196883 0.0287548 0.0254945 0.0294364 0.0239565 -0.0010989 0.0154683 -0.00103916 0.034967 0.0669038 0.0383712 0.0471167 0.0729481 -0.010319 -0.0124381 0.0450531 0.085926 0.0774869 0.100584 0.00534134 0.00632666 0.0186749 0.0050344 0.0238529 0.0575046 0.00897363
internal_weight=2421.55 1254.03 1167.52 901.556 180.089 125.537 352.473 292.089 216.642 54.5519 136.7 52.3766 19.0166 20.5743 79.9423 61.6216 20.7368 937.148 42.5664 75.447 10.3833 18.5667 12.309 721.467 60.3835 39.1458 29.148 18.5672 9.99772 473.992
internal_count=25200 12619 12581 9184 1810 1251 3435 2840 2123 559 1342 516 185 204 781 602 201 10024 443 717 95 184 120 7374 595 386 287 183 99 4837
is_linear=0
shrinkage=0.05


Tree=5
num_leaves=31
num_cat=0
split_feature=49 49 4 4 49 2 49 14 49 22 34 2 2 1 45 4 47 4 4 47 9 22 47 17 43 17 4 42 7 14
split_gain=162.816 33.3691 24.7835 19.2921 12.1782 9.08863 10.1062 16.2521 9.05319 8.81983 9.70221 10.6153 9.66846 11.6849 8.68554 8.65716 11.8898 8.60999 10.0319 8.37032 10.2569 10.5542 8.28345 7.99542 7.28489 7.2329 7.22741 7.51412 7.20101 6.78167
threshold=11.500000000000002 5.5000000000000009 2158.5550000000007 1719.5150000000003 15.500000000000002 1771450588.1934633 22.500000000000004 2.5000000000000004 9.5000000000000018 285.00000000000006 1.0000000180025095e-35 1771894677.1934633 1772073718.6934633 12007.505000000003 1.5000000000000002 1781.4100000000001 541.5200000000001 1925.8650000000002 1683.3850000000002 607.90000000000009 1.5000000000000002 234.00000000000003 418.41000000000003 3.9500000000000006 27.500000000000004 3.7500000000000004 3748.8900000000008 1.5000000000000002 1.0000000180025095e-35 1.5000000000000002
decision_type=2 2 2 2 2 2 2 2 2 2 2 2 2 2 2 2 2 2 2 2 2 2 2 2 2 2 2 2 2 2
left_child=1 -1 4 22 9 6 25 -8 26 10 12 15 17 14 -14 16 -12 18 -2 20 21 -6 24 -15 -3 -4 -5 -28 -13 -19
right_child=2 3 5 8 19 -7 7 -9 -10 -11 11 28 13 23 -16 -17 -18 29 -20 -21 -22 -23 -24 -25 -26 -27 27 -29 -30 -31
leaf_value=-0.028699175817327519 0.0075972529569058858 -0.010130154074939115 0.048606377100319453 -0.0081863132164048842 0.089492176266376455 0.039698255586537612 0.13603514474290546 -0.016905538364301479 0.0041842466416503379 -0.001224904138238051 0.08678324878531167 0.055404913271216993 -0.013307699103133007 0.0574958164671606 0.089494564497584098 0.011002782220636602 -0.020034944292794819 0.063718246710036217 -0.022962068771454486 -0.0055332245083520764 0.02747055669766741 -0.0064875065639680629 -0.027312597570498604 -0.0094283438087558458 -0.043487264600414105 0.015930884076204105 0.079460371255751561 -0.020082580541415634 -0.034724920476473485 0.0011398943370122996
leaf_weight=224.98395923525095 72.043768502771854 342.29555854201317 18.809986338019371 403.70643582195044 2.9829694256186476 98.134035527706146 4.5258573815226546 2.663338229060173 297.37803519517183 246.91641110181808 16.291949607431896 3.033746659755705 2.4384898617863646 6.0189044624567059 10.145750828087328 9.5277465432882291 2.9713631123304358 9.0339747965335864 42.583237782120705 30.600885838270187 179.61734458059072 40.209675967693329 113.41589833050966 16.148346543312073 17.219499386847019 183.88761514425278 4.6886611506342879 2.9721609950065613 7.3651544451713562 8.5536005795001966
leaf_count=2557 737 3717 172 4361 29 914 36 25 3047 2544 158 30 23 56 95 93 31 86 445 307 1710 403 1254 164 189 1782 47 31 75 82
internal_value=-3.28803e-05 -0.0110459 0.0152319 -0.0076785 0.0100581 0.0270755 0.0211337 0.0792356 -0.00245068 0.0051314 0.0127656 0.0351576 0.00746195 0.0308961 0.0692322 0.050775 0.07003 0.001246 -0.00372189 0.0188412 0.0222122 0.00021695 -0.0155003 0.00869512 -0.0117534 0.0190102 -0.00725908 0.0404354 -0.00767718 0.0337449
internal_weight=2421.16 1406.66 1014.5 1181.68 706.483 308.021 209.887 7.1892 708.745 453.072 206.156 39.19 166.966 34.7515 12.5842 28.7911 19.2633 132.215 114.627 253.411 222.81 43.1926 472.931 22.1673 359.515 202.698 411.367 7.66082 10.3989 17.5876
internal_count=25200 15203 9997 12646 7068 2929 2015 61 7486 4619 2075 387 1688 338 118 282 189 1350 1182 2449 2142 432 5160 220 3906 1954 4439 78 105 168
is_linear=0
shrinkage=0.05


Tree=6
num_leaves=31
num_cat=0
split_feature=49 4 49 49 4 47 4 8 47 35 24 6 24 49 18 47 47 44 4 44 49 49 0 2 44 4 24 35 24 47
split_gain=146.717 25.9207 24.0219 20.1767 15.8759 11.1434 10.0154 14.8756 11.8341 11.3852 10.9462 12.8829 10.8243 9.89792 9.77701 9.19505 8.94591 8.65088 9.49574 8.73599 8.00059 7.91104 8.14866 8.04686 9.0638 7.48157 6.84713 6.75491 6.71849 6.70268
threshold=10.500000000000002 2284.0450000000005 5.5000000000000009 14.500000000000002 1719.5150000000003 596.91500000000008 1536.8700000000001 3.5000000000000004 172.90000000000001 2.5000000000000004 250.18500000000003 1.0000000180025095e-35 165.39000000000001 17.500000000000004 4.7500000000000009 581.97000000000014 146.22000000000003 682.50000000000011 2907.1450000000004 67.500000000000014 21.500000000000004 15.500000000000002 4.5000000000000009 1772220646.1934633 413.50000000000006 4292.9050000000007 92.230000000000018 6.5000000000000009 257.69500000000005 160.51500000000001
decision_type=2 2 2 2 2 2 2 2 2 2 2 2 2 2 2 2 2 2 2 2 2 2 2 2 2 2 2 2 2 2
left_child=2 3 -1 26 -4 6 7 12 9 -8 11 -10 13 -5 16 -12 -9 19 27 -3 -16 23 -23 -21 28 -6 29 -19 -25 -2
right_child=1 17 4 5 25 -7 8 14 10 -11 15 -13 -14 -15 20 -17 -18 18 -20 21 -22 22 -24 24 -26 -27 -28 -29 -30 -31
leaf_value=-0.027920635207904516 0.0063296469323906833 -0.0038948998633016995 -0.017556210770467467 0.027125815605515493 -0.0046647536596592211 -0.0050465228672520309 0.06422351817158313 0.014277443208929775 0.090992306703971251 0.0030920979363130994 0.020713971946240136 0.034751432942184642 0.0058407788243575072 0.086707782643711026 -0.0065132082686695791 0.087809929275222798 -0.025780767763547281 0.01794643428075049 0.037844525095486609 0.020283235185932075 0.12319866303307979 0.091749113241113914 0.037513244593534473 0.15527788168083256 0.02096000607196578 0.062307372418878085 0.00087463847651377685 -0.041195461967635572 0.060033594310992838 0.098826240830342027
leaf_weight=219.83014837652445 4.6929201111197454 20.921396993100643 368.51125586777925 23.132253631949425 550.30521427839994 52.796738184988499 8.5638636797666532 20.394975244998932 16.445351615548134 65.045632250607014 81.872368954122066 28.307846613228321 35.168119870126247 10.244470931589602 2.1167800575494757 5.4244407191872588 42.787469938397408 7.2652665302157464 10.466579154133795 166.83390216529369 2.3994945734739304 7.9474172815680495 63.144020102918148 2.7219469323754328 10.814170643687246 4.0929063335061064 564.18504615873098 13.531174674630163 7.1593102142214775 3.4443648606538773
leaf_count=2557 47 201 4092 220 5894 535 80 201 153 624 785 271 344 84 21 50 430 69 99 1606 22 71 570 24 101 38 5780 131 66 34
internal_value=-3.95086e-05 0.011599 -0.0130581 0.00755275 -0.00950984 0.0162494 0.0195531 0.00897419 0.0265293 0.0103496 0.0354959 0.0556864 0.0253935 0.0457673 -0.00758952 0.0250361 -0.012769 0.0241655 -0.000620957 0.0269547 0.0624954 0.0294702 0.0437669 0.0240032 0.0535093 -0.00415016 0.00154459 -0.0203079 0.0880639 0.0468132
internal_weight=2420.57 1277.83 1142.74 967.022 922.909 394.7 341.903 136.244 205.66 73.6095 132.05 44.7532 68.5448 33.3767 67.6987 87.2968 63.1824 310.805 31.263 279.542 4.51627 258.621 71.0914 187.529 20.6954 554.398 572.322 20.7964 9.88126 8.13728
internal_count=25200 12619 12581 9681 10024 3820 3285 1322 1963 704 1259 424 648 304 674 835 631 2938 299 2639 43 2438 641 1797 191 5932 5861 200 90 81
is_linear=0
shrinkage=0.05


Tree=7
num_leaves=31
num_cat=0
split_feature=49 49 49 4 4 4 49 24 24 9 22 36 18 44 24 8 9 2 36 1 1 24 38 1 45 4 45 21 1 15
split_gain=133.981 31.6129 16.0411 15.9108 11.2264 10.9064 9.27552 10.379 9.13415 12.934 9.13316 8.87613 10.8422 15.852 9.48106 11.0796 10.9504 8.44058 8.0924 7.12866 7.01083 7.00188 12.5008 14.3802 9.43872 6.99508 6.68065 6.60282 7.35781 6.46312
threshold=9.5000000000000018 12.500000000000002 4.5000000000000009 1892.1950000000002 1790.9600000000003 1381.8350000000003 17.500000000000004 158.80000000000004 119.68000000000002 2.5000000000000004 206.00000000000003 2.5000000000000004 3.8500000000000001 533.50000000000011 92.230000000000018 3.5000000000000004 3.5000000000000004 1769398778.6934633 5.5000000000000009 22172.285000000007 12388.355000000001 163.19500000000002 1.0000000180025095e-35 10318.780000000001 1.5000000000000002 1777.5450000000003 3.5000000000000004 1.0000000180025095e-35 8957.4550000000017 2.5000000000000004
decision_type=2 2 2 2 2 2 2 2 2 2 2 2 2 2 2 2 2 2 2 2 2 2 2 2 2 2 2 2 2 2
left_child=2 4 -1 6 10 -4 11 8 20 -10 -2 12 13 -3 -13 25 -17 18 -7 -9 26 22 -12 -24 -25 -16 -8 -20 -29 -23
right_child=1 3 5 -5 -6 17 7 19 9 -11 21 14 -14 -15 15 16 -18 -19 27 -21 -22 29 23 24 -26 -27 -28 28 -30 -31
leaf_value=-0.030928569379155973 0.034411042934340129 0.0010205618668359142 -0.02531519102468572 0.023174278249197086 0.0069469658920412241 -0.0038378110664019274 0.014783097686831882 0.0081962038246115414 0.018797226798886634 0.11262427281836007 -0.0042371227028605496 0.097538738533939601 -0.008705301907230633 0.08388767441170171 0.026822357707834584 0.010929678457177407 -0.024156523508634131 -0.012559430754059795 -0.021815112418767133 0.064433904507902998 -0.027123693075445345 -0.0035335836534263459 -0.016646401343906794 0.0022350209598055522 0.11955618343037296 -0.0032644664795923595 0.10009278194043186 -0.0094287642906918587 0.064219324512241896 -0.020808669458888981
leaf_weight=140.97852399945259 13.182351514697073 19.974343664944175 136.57595986872911 365.29060084372759 344.29226700216532 99.488598264753819 7.4562174305319839 75.350137315690517 6.4984537661075583 8.9593857824802381 69.787878848612309 3.1311417520046225 138.7895076200366 8.0902740061283094 98.889657035470009 61.740073062479496 34.593218274414539 494.24543722718954 4.6457837894558933 6.0416177958250037 5.2422511056065551 104.20929723232985 5.2816685959696761 2.4856054410338384 6.1704299673438072 23.621060095727444 3.3677784502506256 4.4684853926301029 12.400828719139097 114.55147714912891
leaf_count=1678 139 202 1556 3364 3452 1094 63 724 61 73 741 28 1403 79 974 632 355 5491 51 52 48 1110 57 26 65 236 27 50 134 1235
internal_value=-4.29343e-05 0.00895107 -0.0154306 0.0152274 0.000696828 -0.0125141 0.00942828 0.0220533 0.046428 0.0738753 -0.00610425 0.00574439 -0.00294407 0.0252995 0.0122962 0.0110098 -0.00162989 -0.00966071 0.00213856 0.012506 0.0194171 -0.00789722 0.00435116 0.0474338 0.0868484 0.0209827 0.0424573 0.0298953 0.0444756 -0.0126077
internal_weight=2419.8 1527 892.804 867.036 659.961 751.825 501.745 112.916 31.5241 15.4578 315.669 388.829 166.854 28.0646 221.975 218.844 96.3333 615.249 121.004 81.3918 16.0662 302.486 83.7256 13.9377 8.65604 122.511 10.824 21.5151 16.8693 218.761
internal_count=25200 15146 10054 8321 6825 8376 4957 1048 272 134 3373 3909 1684 281 2225 2197 987 6820 1329 776 138 3234 889 148 91 1210 90 235 184 2345
is_linear=0
shrinkage=0.05


Tree=8
num_leaves=31
num_cat=0
split_feature=49 49 49 4 4 4 48 49 8 24 37 22 45 22 2 35 1 43 35 4 4 24 38 43 22 18 35 2 22 2
split_gain=121.616 27.9929 15.2137 13.8404 10.4101 10.1323 9.47669 10.8519 8.70258 11.5865 10.8504 8.11549 7.34804 6.89966 7.60656 6.85662 7.11751 6.84512 6.57814 15.1716 6.99221 6.39238 10.8286 12.7703 6.26987 11.0202 6.13373 6.06339 7.25227 6.439
threshold=9.5000000000000018 12.500000000000002 4.5000000000000009 1892.1950000000002 1661.1350000000004 1790.9600000000003 6.3934500000000005 17.500000000000004 3.5000000000000004 103.26000000000002 1.0000000180025095e-35 206.00000000000003 2.5000000000000004 305.00000000000006 1769700355.6934633 13.500000000000002 14267.305000000002 5.5000000000000009 3.5000000000000004 1642.6450000000002 1498.3050000000003 163.19500000000002 1.0000000180025095e-35 17.500000000000004 292.50000000000006 4.5500000000000007 20.500000000000004 1770925019.1934633 241.50000000000003 1771658862.1934633
decision_type=2 2 2 2 2 2 2 2 2 2 2 2 2 2 2 2 2 2 2 2 2 2 2 2 2 2 2 2 2 2
left_child=2 5 -1 6 -4 11 7 8 9 12 -11 -2 -3 14 15 17 -17 -6 19 20 -9 22 -13 -24 25 -10 -8 -16 29 -29
right_child=1 3 4 -5 13 -7 26 18 24 10 -12 21 -14 -15 27 16 -18 -19 -20 -21 -22 -23 23 -25 -26 -27 -28 28 -30 -31
leaf_value=-0.030154804121998415 0.031817518161243882 0.024474934891032221 -0.019841240874317129 0.02162795893516356 -0.026533670771197389 0.006563412665294097 -0.01626358856228724 0.039399267503924695 0.023314557455660745 0.016405463736646874 -0.015537209306334121 -0.0040393925697353537 0.10761548486090199 -0.020290783190880915 -0.020199310598261511 -0.039168757121426465 0.0060635951103723369 0.025188094452917545 0.019813990332610661 0.10959914155240019 -0.053417303494705116 -0.012103528512910744 0.0097801246047076653 0.11008665928569226 -0.010840208549922625 -0.021816624880480653 0.040796913199611151 -0.011656863943540881 -0.012443139888312629 0.016004360655881296
leaf_weight=137.45928850024939 13.542478069663046 6.0516017079353315 270.9392714202404 371.67361915111542 7.1610377207398406 346.14820117503405 49.247875221073627 7.1012207344174403 45.051845096051693 154.74383655935526 31.857132390141487 69.554848618805408 5.0587411224842072 86.573734149336815 82.207845114171505 12.700664356350897 26.661557711660862 49.904679387807846 86.00411769002676 7.0678533390164366 2.6993748769164085 216.59219878911972 9.7586206123232824 4.7132498919963828 86.17989057302475 19.123028703033924 5.0704325288534156 32.075290136039257 116.0757227614522 60.039372734725475
leaf_count=1678 139 57 3130 3364 80 3452 517 62 449 1516 313 741 46 958 914 140 295 538 777 61 25 2345 100 48 885 196 53 360 1288 673
internal_value=-4.80499e-05 0.00844071 -0.0148515 0.0142953 -0.012015 0.000656909 0.00888819 0.0112703 0.0070297 0.0139248 0.0109199 -0.00583508 0.0633986 -0.00752198 -0.00464682 0.00748743 -0.0084667 0.0185751 0.025549 0.0542052 0.0130485 -0.00755792 0.00410012 0.0433227 -0.0020071 0.00977542 -0.0107801 -0.00869445 -0.00412002 0.00631602
internal_weight=2419.04 1537.24 881.798 876.931 744.339 660.31 505.257 450.939 348.066 197.711 186.601 314.161 11.1103 473.4 386.826 96.4279 39.3622 57.0657 102.873 16.8684 9.8006 300.619 84.0267 14.4719 150.355 64.1749 54.3183 290.398 208.19 92.1147
internal_count=25200 15146 10054 8321 8376 6825 4957 4387 3462 1932 1829 3373 103 5246 4288 1053 435 618 925 148 87 3234 889 148 1530 645 570 3235 2321 1033
is_linear=0
shrinkage=0.05


Tree=9
num_leaves=31
num_cat=0
split_feature=49 49 49 4 8 37 47 4 4 0 7 35 49 5 2 24 1 1 1 36 35 35 47 4 24 44 46 36 4 5
split_gain=110.414 24.9889 14.4078 13.1223 12.4755 13.2835 13.2454 9.87027 9.80624 9.59264 8.53635 8.40743 7.74977 9.97029 7.29171 6.98791 8.97331 8.26667 9.34472 6.96966 6.8138 6.77561 11.6658 8.76251 6.64743 6.58584 6.4692 6.43713 6.36485 6.18599
threshold=9.5000000000000018 13.500000000000002 4.5000000000000009 1862.3300000000002 3.5000000000000004 1.0000000180025095e-35 330.67000000000002 1381.8350000000003 1925.8650000000002 3.5000000000000004 1.5000000000000002 2.5000000000000004 21.500000000000004 3.5000000000000004 1769398778.6934633 221.64000000000001 9218.6700000000019 13218.040000000003 13113.055000000002 5.5000000000000009 17.500000000000004 15.500000000000002 134.66000000000003 1381.8350000000003 94.415000000000006 141.50000000000003 1.0000000180025095e-35 1.5000000000000002 2838.9550000000004 22.500000000000004
decision_type=2 2 2 2 2 2 2 2 2 2 2 2 2 2 2 2 2 2 2 2 2 2 2 2 2 2 2 2 2 2
left_child=2 8 -1 4 6 10 11 -4 15 -5 12 29 13 -6 19 16 -2 18 -18 -9 28 23 -23 -13 -10 -7 -14 -19 -11 -3
right_child=1 3 7 9 5 25 -8 14 24 20 -12 21 26 -15 -16 -17 17 27 -20 -21 -22 22 -24 -25 -26 -27 -28 -29 -30 -31
leaf_value=-0.02938590600855899 -0.011226523390970265 0.036483160787453089 -0.023958834605104073 0.1070151039944478 0.071957950654199229 0.0730474213956777 0 -0.0035088307550448362 0.067328991869420443 0.013784059848663613 -0.019529407403473448 0.03197144859343027 0.12364431980994145 -0.0090475560272441809 -0.011562969184017644 -0.0071043428874231832 0.018870052770600259 -0.021664163318790855 0.095441851381823775 0.027479590723708799 0.035203383469319116 -0.007587596077550606 0.051128991108347704 -0.0035701122918123866 0.0080913842405933561 0.014757496449604883 0.010683252473286381 0.0087886910365528991 0.034660727092199396 0.099727433017664374
leaf_weight=134.09244903922081 63.80924180150032 12.641390889883043 131.67484474182129 3.2398751229047766 4.1766104251146308 5.6980519518256179 76.952671371400356 98.924973100423813 4.7356495410203925 209.30172200500965 80.503474801778793 29.494962021708488 2.3811325728893271 33.881633505225182 484.53399303555489 297.05729075521231 67.262669749557972 23.500501565635204 4.190928027033805 22.082738168537617 70.350419275462627 11.124982088804243 33.154226243495941 41.329026475548744 320.28330931812525 32.895460076630116 2.8538346812129021 65.348254404962063 44.812459655106068 5.9247105345129958
leaf_count=1678 672 111 1556 28 40 57 760 1094 45 1885 820 264 20 338 5491 3148 699 246 43 235 613 100 307 390 3096 327 26 672 388 51
internal_value=-5.29127e-05 0.00796331 -0.0142898 0.0149473 0.00850879 -0.00187738 0.0165374 -0.0115335 0.00217294 0.022256 -0.00989145 0.0260452 0.00791875 0 -0.0088199 -0.00206994 0.00458099 0.0109075 0.0235582 0.00212299 0.0213615 0.0209054 0.0362802 0.011185 0.00899032 0.0236593 0.0643555 0.000662397 0.0174975 0.0573593
internal_weight=2418.21 1546.9 871.309 700.717 373.012 162.39 210.622 737.217 846.188 327.704 123.797 133.669 43.2932 38.0582 605.542 521.169 224.112 160.302 71.4536 121.008 324.465 115.103 44.2792 70.824 325.019 38.5935 5.23497 88.8488 254.114 18.5661
internal_count=25200 15146 10054 6525 3611 1628 1983 8376 8621 2914 1244 1223 424 378 6820 5480 2332 1660 742 1329 2886 1061 407 654 3141 384 46 918 2273 162
is_linear=0
shrinkage=0.05


Tree=10
num_leaves=31
num_cat=0
split_feature=49 49 49 4 4 4 47 49 36 8 35 11 47 44 33 47 24 22 47 24 8 5 44 35 44 35 24 35 35 22
split_gain=100.222 22.6016 13.6772 10.5545 8.86724 8.53178 8.00851 8.95685 7.9825 9.39512 7.57841 7.54494 7.45654 7.41009 7.39734 7.20002 6.65776 6.12855 6.02655 5.8875 5.87833 5.86935 7.88922 7.57099 7.05572 5.51891 5.5161 5.74282 6.70931 6.49862
threshold=9.5000000000000018 12.500000000000002 5.5000000000000009 1892.1950000000002 1661.1350000000004 1790.9600000000003 596.91500000000008 17.500000000000004 2.5000000000000004 3.5000000000000004 21.500000000000004 3.5000000000000004 581.97000000000014 694.50000000000011 1.0000000180025095e-35 628.08500000000015 92.230000000000018 206.00000000000003 714.46000000000015 424.61000000000007 4.5000000000000009 31.500000000000004 245.50000000000003 13.500000000000002 271.50000000000006 20.500000000000004 94.415000000000006 2.5000000000000004 3.5000000000000004 309.50000000000006
decision_type=2 2 2 2 2 2 2 2 2 2 2 2 2 2 2 2 2 2 2 2 2 2 2 2 2 2 2 2 2 2
left_child=2 5 -1 6 -4 15 7 8 13 10 -10 12 19 -3 -15 17 -11 -2 26 -9 -20 -6 -23 -24 -25 -8 -7 29 -29 -28
right_child=1 3 4 -5 21 18 25 11 9 16 -12 -13 -14 14 -16 -17 -18 -19 20 -21 -22 22 23 24 -26 -27 27 28 -30 -31
leaf_value=-0.02511492074379465 0.029253564974337898 -0.0050838482574722885 -0.018007675030280636 0.018985745050060863 -0.0092599687610696139 0.052213637197782541 -0.015563558537841183 0.034692967286482121 0.026543676018044145 0.072691086504845515 -0.014927189366616748 0.0049505473607505991 0.10203516939881563 0.075145212348659507 -0.030010502727037792 -0.028162339025270267 -0.002325484006024261 -0.0046351350120892422 0.013666294681089139 -0.0094475690489620196 0.080773772679094163 -0.020458525610303493 0.023925913349877741 0.076932115039920312 -0.014542139861794104 0.037913269769183591 0.028147888234037167 -0.031916092823432822 0.0027515589297907924 -0.024990124692127261
leaf_weight=202.65974497795105 13.915189713239668 142.21735198795795 235.7947057262063 382.99629793316126 318.18549790978432 5.8579746931791297 48.524017475545406 55.477927044034004 102.94168680906296 2.965448670089244 12.109410919249056 38.175607115030289 3.6600183919072142 5.5912938937544814 2.2238470390439034 31.443389624357224 83.622360743582249 266.88708209991455 9.867713086307047 8.5021202042698842 5.001765362918376 24.320688582956791 49.963219508528709 2.1680641546845463 28.165743432939053 5.2164147198200217 38.28000371158123 14.61006974428892 269.29806418716908 6.5894961133599272
leaf_count=2557 139 1416 2790 3364 3578 55 517 479 972 25 116 336 32 54 23 356 856 2878 96 78 49 266 527 24 312 53 375 145 2667 65
internal_value=-5.53597e-05 0.00751703 -0.013741 0.0127008 -0.0102302 0.000503825 0.00797969 0.0101302 0.00626942 0.0127689 0.0221262 0.0228959 0.032928 -0.00243509 0.0445897 -0.00549347 0.000266886 -0.00292816 0.00587611 0.0287436 0.0369626 -0.00587764 0.00436067 0.0119563 -0.00760856 -0.0102191 0.00446923 0.00358772 0.000939328 0.0201947
internal_weight=2417.23 1555.97 861.258 894.224 658.598 661.751 511.228 457.487 351.671 201.639 115.051 105.816 67.6401 150.032 7.81514 312.246 86.5878 280.802 349.505 63.98 14.8695 422.803 104.618 80.297 30.3338 53.7404 334.636 328.778 283.908 44.8695
internal_count=25200 15146 10054 8321 7497 6825 4957 4387 3462 1969 1088 925 589 1493 77 3373 881 3017 3452 557 145 4707 1129 863 336 570 3307 3252 2812 440
is_linear=0
shrinkage=0.05


Tree=11
num_leaves=31
num_cat=0
split_feature=49 49 49 49 38 26 47 18 44 25 2 47 2 6 14 2 44 0 25 24 11 2 2 0 46 18 2 21 13 47
split_gain=90.9631 20.0765 13.0933 7.69095 7.84134 5.14618 13.3733 7.00652 11.8573 15.4497 8.8066 6.87021 7.46563 6.71415 6.04806 5.43068 9.08747 7.24779 7.35544 6.83691 4.97437 6.49402 5.52559 6.48651 6.41085 4.79845 9.23835 4.56908 4.56216 9.89807
threshold=9.5000000000000018 12.500000000000002 4.5000000000000009 19.500000000000004 1.0000000180025095e-35 1.0000000180025095e-35 92.140000000000015 3.7000000000000006 455.50000000000006 1.0000000180025095e-35 1771625764.1934633 685.59500000000014 1772321238.6934633 1.0000000180025095e-35 1.5000000000000002 1764360348.1934633 375.50000000000006 10.500000000000002 1.0000000180025095e-35 96.935000000000016 4.5000000000000009 1772185145.1934633 1771967125.1934633 6.5000000000000009 1.0000000180025095e-35 4.1500000000000012 1772073718.6934633 1.0000000180025095e-35 1.5000000000000002 467.21000000000004
decision_type=2 2 2 2 2 2 2 2 2 2 2 2 2 2 2 2 2 2 2 2 2 2 2 2 2 2 2 2 2 2
left_child=2 -2 -1 5 20 7 -7 8 -3 13 -11 25 14 -10 -13 16 -9 18 -17 -19 21 22 23 -5 -24 27 -27 -8 29 -6
right_child=1 3 -4 4 28 6 11 15 9 10 -12 12 -14 -15 -16 17 -18 19 -20 -21 -22 -23 24 -25 -26 26 -28 -29 -30 -31
leaf_value=-0.027957652900864018 0.00047550549323134252 0.013504334070992522 -0.010585190758076624 0.062484740929055406 0.10222377089416426 0.086106337843815245 0.012496391497526278 -0.014642423571301313 0.072174600207952494 0.066743324343409488 0.16593394004657305 -0.020097880333236586 0.11089405698568862 -0.032449458045616483 0.047491945569761593 0.021616891395816722 0.066964610526151977 0.066769777794477722 0.007411668838503054 -0.0034537215522213735 0.0072518007583182902 -0.010326725759381381 0.14572892413986899 0.024263218672652655 0.046618123468317306 4.3983572417362183e-05 0.033820914541940965 -0.013863065682498357 -0.027206896921030017 -0.03475518106701863
leaf_weight=128.16820706427097 661.95970403403044 36.096488021314144 723.48749931156635 16.331167407333851 2.4023901522159568 4.7954521104693404 20.740938268601894 4.8867862820625296 2.2204797267913827 7.5330129265785217 3.4826877191662788 5.6307370513677579 2.5812421441078177 4.3996167555451393 7.5525493323802948 159.67714117467403 10.343637585639952 3.4807356894016257 216.14031577110291 105.93656420707703 18.272931858897209 6.3511833399534217 2.5960575863718978 37.507303193211555 5.1480142697691917 105.18869388103485 25.056986734271049 75.392270922660828 10.204882860183714 2.6383178383111954
leaf_count=1678 6825 340 8376 127 21 45 192 47 20 65 31 54 24 41 70 1470 91 27 2013 1016 155 52 21 319 43 994 222 703 93 25
internal_value=-5.81457e-05 0.00709737 -0.0132085 0.0119477 0.0249488 0.0102922 0.00425628 0.0129714 0.0301719 0.0637362 0.0997636 0.00257979 0.0343907 0.00245079 0.0183131 0.011109 0.0405296 0.0101671 0.0134646 -0.00111522 0.030801 0.0370419 0.042017 0.0360442 0.0819149 0.000328267 0.00660139 -0.00811693 -0.0078023 0.0302746
internal_weight=2416.2 1564.55 851.656 902.589 101.452 801.136 246.939 554.197 53.7323 17.6358 11.0157 242.143 15.7645 6.6201 13.1833 500.465 15.2304 485.235 375.817 109.417 86.2067 67.9337 61.5825 53.8385 7.74407 226.379 130.246 96.1332 15.2456 5.04071
internal_count=25200 15146 10054 8321 856 7465 2304 5161 497 157 96 2259 148 61 124 4664 138 4526 3483 1043 717 562 510 446 64 2111 1216 895 139 46
is_linear=0
shrinkage=0.05


end of trees

feature_importances:
item_item_order_count=55
user_monetary_value_avg=47
item_price=31
cart_total_value=26
context_hour=23
user_last_order_at=22
rest_total_item_orders=17
item_name=16
user_total_value=14
user_preferred_cuisine_2=10
rest_delivery_rating=8
user_preferred_zone_3=7
rest_rating_avg=7
context_day_of_week=7
item_category=7
item_restaurant_id=5
user_order_count=4
user_recency_days=4
user_segment=4
user_preferred_cuisine_1=4
user_preferred_cuisine_3=4
context_meal_lunch=4
user_preferred_cuisine_5=3
rest_zone=3
cart_category_side=3
cart_category_addon=3
context_meal_breakfast=3
item_veg=3
item_price_log=3
user_order_frequency=2
user_preferred_zone_2=2
cart_veg_ratio=2
context_meal_late_night=2
user_preferred_cuisine_4=1
rest_cuisine=1
rest_price_tier=1
cart_has_main=1
context_zone=1

parameters:
[boosting: gbdt]
[objective: binary]
[metric: auc]
[tree_learner: serial]
[device_type: cpu]
[data_sample_strategy: bagging]
[data: ]
[valid: ]
[num_iterations: 500]
[learning_rate: 0.05]
[num_leaves: 31]
[num_threads: 16]
[seed: 42]
[deterministic: 0]
[force_col_wise: 0]
[force_row_wise: 0]
[histogram_pool_size: -1]
[max_depth: 8]
[min_data_in_leaf: 20]
[min_sum_hessian_in_leaf: 0.001]
[bagging_fraction: 0.8]
[pos_bagging_fraction: 1]
[neg_bagging_fraction: 1]
[bagging_freq: 0]
[bagging_seed: 400]
[bagging_by_query: 0]
[feature_fraction: 0.8]
[feature_fraction_bynode: 1]
[feature_fraction_seed: 30056]
[extra_trees: 0]
[extra_seed: 12879]
[early_stopping_round: 0]
[early_stopping_min_delta: 0]
[first_metric_only: 0]
[max_delta_step: 0]
[lambda_l1: 0.1]
[lambda_l2: 0.1]
[linear_lambda: 0]
[min_gain_to_split: 0]
[drop_rate: 0.1]
[max_drop: 50]
[skip_drop: 0.5]
[xgboost_dart_mode: 0]
[uniform_drop: 0]
[drop_seed: 17869]
[top_rate: 0.2]
[other_rate: 0.1]
[min_data_per_group: 100]
[max_cat_threshold: 32]
[cat_l2: 10]
[cat_smooth: 10]
[max_cat_to_onehot: 4]
[top_k: 20]
[monotone_constraints: ]
[monotone_constraints_method: basic]
[monotone_penalty: 0]
[feature_contri: ]
[forcedsplits_filename: ]
[refit_decay_rate: 0.9]
[cegb_tradeoff: 1]
[cegb_penalty_split: 0]
[cegb_penalty_feature_lazy: ]
[cegb_penalty_feature_coupled: ]
[path_smooth: 0]
[interaction_constraints: ]
[verbosity: -1]
[saved_feature_importance_type: 0]
[use_quantized_grad: 0]
[num_grad_quant_bins: 4]
[quant_train_renew_leaf: 0]
[stochastic_rounding: 1]
[linear_tree: 0]
[max_bin: 255]
[max_bin_by_feature: ]
[min_data_in_bin: 3]
[bin_construct_sample_cnt: 200000]
[data_random_seed: 175]
[is_enable_sparse: 1]
[enable_bundle: 1]
[use_missing: 1]
[zero_as_missing: 0]
[feature_pre_filter: 1]
[pre_partition: 0]
[two_round: 0]
[header: 0]
[label_column: ]
[weight_column: ]
[group_column: ]
[ignore_column: ]
[categorical_feature: ]
[forcedbins_filename: ]
[precise_float_parser: 0]
[parser_config_file: ]
[objective_seed: 16083]
[num_class: 1]
[is_unbalance: 0]
[scale_pos_weight: 1]
[sigmoid: 1]
[boost_from_average: 1]
[reg_sqrt: 0]
[alpha: 0.9]
[fair_c: 1]
[poisson_max_delta_step: 0.7]
[tweedie_variance_power: 1.5]
[lambdarank_truncation_level: 30]
[lambdarank_norm: 1]
[label_gain: ]
[lambdarank_position_bias_regularization: 0]
[eval_at: ]
[multi_error_top_k: 1]
[auc_mu_weights: ]
[num_machines: 1]
[local_listen_port: 12400]
[time_out: 120]
[machine_list_filename: ]
[machines: ]
[gpu_platform_id: -1]
[gpu_device_id: -1]
[gpu_use_dp: 0]
[num_gpu: 1]

end of parameters

pandas_categorical:[]
